digraph Tree {
node [shape=box] ;
0 [label="age <= 60.5\nentropy = 0.519\nsamples = 3014\nvalue = [2663, 351]"] ;
1 [label="housing <= 0.5\nentropy = 0.493\nsamples = 2933\nvalue = [2617, 316]"] ;
0 -> 1 [labeldistance=2.5, labelangle=45, headlabel="True"] ;
2 [label="balance <= 131.5\nentropy = 0.589\nsamples = 1247\nvalue = [1070, 177]"] ;
1 -> 2 ;
3 [label="job <= 2.5\nentropy = 0.415\nsamples = 382\nvalue = [350, 32]"] ;
2 -> 3 ;
4 [label="balance <= 2.5\nentropy = 0.196\nsamples = 99\nvalue = [96, 3]"] ;
3 -> 4 ;
5 [label="entropy = 0.0\nsamples = 46\nvalue = [46, 0]"] ;
4 -> 5 ;
6 [label="balance <= 4.0\nentropy = 0.314\nsamples = 53\nvalue = [50, 3]"] ;
4 -> 6 ;
7 [label="entropy = 0.0\nsamples = 1\nvalue = [0, 1]"] ;
6 -> 7 ;
8 [label="entropy = 0.235\nsamples = 52\nvalue = [50, 2]"] ;
6 -> 8 ;
9 [label="age <= 55.5\nentropy = 0.477\nsamples = 283\nvalue = [254, 29]"] ;
3 -> 9 ;
10 [label="age <= 50.5\nentropy = 0.511\nsamples = 246\nvalue = [218, 28]"] ;
9 -> 10 ;
11 [label="entropy = 0.441\nsamples = 219\nvalue = [199, 20]"] ;
10 -> 11 ;
12 [label="entropy = 0.877\nsamples = 27\nvalue = [19, 8]"] ;
10 -> 12 ;
13 [label="education <= 0.5\nentropy = 0.179\nsamples = 37\nvalue = [36, 1]"] ;
9 -> 13 ;
14 [label="entropy = 0.414\nsamples = 12\nvalue = [11, 1]"] ;
13 -> 14 ;
15 [label="entropy = 0.0\nsamples = 25\nvalue = [25, 0]"] ;
13 -> 15 ;
16 [label="loan <= 0.5\nentropy = 0.652\nsamples = 865\nvalue = [720, 145]"] ;
2 -> 16 ;
17 [label="age <= 38.5\nentropy = 0.69\nsamples = 743\nvalue = [606, 137]"] ;
16 -> 17 ;
18 [label="balance <= 7087.0\nentropy = 0.781\nsamples = 337\nvalue = [259, 78]"] ;
17 -> 18 ;
19 [label="entropy = 0.802\nsamples = 315\nvalue = [238, 77]"] ;
18 -> 19 ;
20 [label="entropy = 0.267\nsamples = 22\nvalue = [21, 1]"] ;
18 -> 20 ;
21 [label="balance <= 10165.5\nentropy = 0.598\nsamples = 406\nvalue = [347, 59]"] ;
17 -> 21 ;
22 [label="entropy = 0.618\nsamples = 385\nvalue = [326, 59]"] ;
21 -> 22 ;
23 [label="entropy = 0.0\nsamples = 21\nvalue = [21, 0]"] ;
21 -> 23 ;
24 [label="balance <= 357.5\nentropy = 0.349\nsamples = 122\nvalue = [114, 8]"] ;
16 -> 24 ;
25 [label="entropy = 0.0\nsamples = 34\nvalue = [34, 0]"] ;
24 -> 25 ;
26 [label="default <= 0.5\nentropy = 0.439\nsamples = 88\nvalue = [80, 8]"] ;
24 -> 26 ;
27 [label="entropy = 0.404\nsamples = 87\nvalue = [80, 7]"] ;
26 -> 27 ;
28 [label="entropy = 0.0\nsamples = 1\nvalue = [0, 1]"] ;
26 -> 28 ;
29 [label="balance <= 606.5\nentropy = 0.411\nsamples = 1686\nvalue = [1547, 139]"] ;
1 -> 29 ;
30 [label="balance <= 257.5\nentropy = 0.343\nsamples = 984\nvalue = [921, 63]"] ;
29 -> 30 ;
31 [label="marital <= 1.5\nentropy = 0.405\nsamples = 669\nvalue = [615, 54]"] ;
30 -> 31 ;
32 [label="balance <= -687.5\nentropy = 0.335\nsamples = 516\nvalue = [484, 32]"] ;
31 -> 32 ;
33 [label="entropy = 0.722\nsamples = 20\nvalue = [16, 4]"] ;
32 -> 33 ;
34 [label="entropy = 0.313\nsamples = 496\nvalue = [468, 28]"] ;
32 -> 34 ;
35 [label="job <= 4.5\nentropy = 0.594\nsamples = 153\nvalue = [131, 22]"] ;
31 -> 35 ;
36 [label="entropy = 0.678\nsamples = 95\nvalue = [78, 17]"] ;
35 -> 36 ;
37 [label="entropy = 0.424\nsamples = 58\nvalue = [53, 5]"] ;
35 -> 37 ;
38 [label="age <= 37.5\nentropy = 0.187\nsamples = 315\nvalue = [306, 9]"] ;
30 -> 38 ;
39 [label="job <= 3.5\nentropy = 0.275\nsamples = 148\nvalue = [141, 7]"] ;
38 -> 39 ;
40 [label="entropy = 0.119\nsamples = 62\nvalue = [61, 1]"] ;
39 -> 40 ;
41 [label="entropy = 0.365\nsamples = 86\nvalue = [80, 6]"] ;
39 -> 41 ;
42 [label="balance <= 408.5\nentropy = 0.094\nsamples = 167\nvalue = [165, 2]"] ;
38 -> 42 ;
43 [label="entropy = 0.0\nsamples = 89\nvalue = [89, 0]"] ;
42 -> 43 ;
44 [label="entropy = 0.172\nsamples = 78\nvalue = [76, 2]"] ;
42 -> 44 ;
45 [label="balance <= 6070.5\nentropy = 0.495\nsamples = 702\nvalue = [626, 76]"] ;
29 -> 45 ;
46 [label="education <= 1.5\nentropy = 0.526\nsamples = 632\nvalue = [557, 75]"] ;
45 -> 46 ;
47 [label="balance <= 4409.5\nentropy = 0.458\nsamples = 424\nvalue = [383, 41]"] ;
46 -> 47 ;
48 [label="entropy = 0.415\nsamples = 383\nvalue = [351, 32]"] ;
47 -> 48 ;
49 [label="entropy = 0.759\nsamples = 41\nvalue = [32, 9]"] ;
47 -> 49 ;
50 [label="balance <= 1937.0\nentropy = 0.643\nsamples = 208\nvalue = [174, 34]"] ;
46 -> 50 ;
51 [label="entropy = 0.52\nsamples = 137\nvalue = [121, 16]"] ;
50 -> 51 ;
52 [label="entropy = 0.817\nsamples = 71\nvalue = [53, 18]"] ;
50 -> 52 ;
53 [label="education <= 2.5\nentropy = 0.108\nsamples = 70\nvalue = [69, 1]"] ;
45 -> 53 ;
54 [label="entropy = 0.0\nsamples = 64\nvalue = [64, 0]"] ;
53 -> 54 ;
55 [label="job <= 2.5\nentropy = 0.65\nsamples = 6\nvalue = [5, 1]"] ;
53 -> 55 ;
56 [label="entropy = 1.0\nsamples = 2\nvalue = [1, 1]"] ;
55 -> 56 ;
57 [label="entropy = 0.0\nsamples = 4\nvalue = [4, 0]"] ;
55 -> 57 ;
58 [label="balance <= 2832.5\nentropy = 0.987\nsamples = 81\nvalue = [46, 35]"] ;
0 -> 58 [labeldistance=2.5, labelangle=-45, headlabel="False"] ;
59 [label="balance <= 2161.5\nentropy = 0.929\nsamples = 58\nvalue = [38, 20]"] ;
58 -> 59 ;
60 [label="balance <= 1849.5\nentropy = 0.961\nsamples = 52\nvalue = [32, 20]"] ;
59 -> 60 ;
61 [label="age <= 71.5\nentropy = 0.931\nsamples = 49\nvalue = [32, 17]"] ;
60 -> 61 ;
62 [label="education <= 0.5\nentropy = 0.75\nsamples = 28\nvalue = [22, 6]"] ;
61 -> 62 ;
63 [label="entropy = 0.0\nsamples = 8\nvalue = [8, 0]"] ;
62 -> 63 ;
64 [label="entropy = 0.881\nsamples = 20\nvalue = [14, 6]"] ;
62 -> 64 ;
65 [label="balance <= 1364.5\nentropy = 0.998\nsamples = 21\nvalue = [10, 11]"] ;
61 -> 65 ;
66 [label="entropy = 0.964\nsamples = 18\nvalue = [7, 11]"] ;
65 -> 66 ;
67 [label="entropy = 0.0\nsamples = 3\nvalue = [3, 0]"] ;
65 -> 67 ;
68 [label="entropy = 0.0\nsamples = 3\nvalue = [0, 3]"] ;
60 -> 68 ;
69 [label="entropy = 0.0\nsamples = 6\nvalue = [6, 0]"] ;
59 -> 69 ;
70 [label="job <= 1.5\nentropy = 0.932\nsamples = 23\nvalue = [8, 15]"] ;
58 -> 70 ;
71 [label="entropy = 0.0\nsamples = 3\nvalue = [3, 0]"] ;
70 -> 71 ;
72 [label="education <= 0.5\nentropy = 0.811\nsamples = 20\nvalue = [5, 15]"] ;
70 -> 72 ;
73 [label="age <= 70.5\nentropy = 0.971\nsamples = 5\nvalue = [3, 2]"] ;
72 -> 73 ;
74 [label="entropy = 0.0\nsamples = 2\nvalue = [2, 0]"] ;
73 -> 74 ;
75 [label="job <= 4.5\nentropy = 0.918\nsamples = 3\nvalue = [1, 2]"] ;
73 -> 75 ;
76 [label="entropy = 0.0\nsamples = 1\nvalue = [1, 0]"] ;
75 -> 76 ;
77 [label="entropy = 0.0\nsamples = 2\nvalue = [0, 2]"] ;
75 -> 77 ;
78 [label="balance <= 12069.0\nentropy = 0.567\nsamples = 15\nvalue = [2, 13]"] ;
72 -> 78 ;
79 [label="entropy = 0.0\nsamples = 12\nvalue = [0, 12]"] ;
78 -> 79 ;
80 [label="housing <= 0.5\nentropy = 0.918\nsamples = 3\nvalue = [2, 1]"] ;
78 -> 80 ;
81 [label="entropy = 0.0\nsamples = 2\nvalue = [2, 0]"] ;
80 -> 81 ;
82 [label="entropy = 0.0\nsamples = 1\nvalue = [0, 1]"] ;
80 -> 82 ;
}